digraph Tree {
node [shape=box, style="filled, rounded", color="black", fontname="helvetica"] ;
edge [fontname="helvetica"] ;
0 [label="% Unemployment <= 13.15\nsquared_error = 24.84\nsamples = 39\nvalue = 75.04", fillcolor="#f1bd98"] ;
1 [label="% Disability <= 8.2\nsquared_error = 8.46\nsamples = 17\nvalue = 77.65", fillcolor="#efb185"] ;
0 -> 1 [labeldistance=2.5, labelangle=45, headlabel="True"] ;
2 [label="% Disability <= 6.95\nsquared_error = 6.19\nsamples = 14\nvalue = 78.32", fillcolor="#eeae80"] ;
1 -> 2 ;
3 [label="% Disability <= 3.0\nsquared_error = 2.21\nsamples = 13\nvalue = 77.9", fillcolor="#efb083"] ;
2 -> 3 ;
4 [label="squared_error = 0.0\nsamples = 1\nvalue = 74.0", fillcolor="#f2c2a0"] ;
3 -> 4 ;
5 [label="% Unemployment <= 12.1\nsquared_error = 1.59\nsamples = 12\nvalue = 78.08", fillcolor="#efaf82"] ;
3 -> 5 ;
6 [label="% Disability <= 4.05\nsquared_error = 0.79\nsamples = 6\nvalue = 77.45", fillcolor="#efb286"] ;
5 -> 6 ;
7 [label="% Disability <= 3.35\nsquared_error = 0.22\nsamples = 2\nvalue = 78.33", fillcolor="#eeae80"] ;
6 -> 7 ;
8 [label="squared_error = 0.0\nsamples = 1\nvalue = 78.0", fillcolor="#efb082"] ;
7 -> 8 ;
9 [label="squared_error = 0.0\nsamples = 1\nvalue = 79.0", fillcolor="#eeab7b"] ;
7 -> 9 ;
10 [label="% Unemployment <= 9.1\nsquared_error = 0.61\nsamples = 4\nvalue = 77.12", fillcolor="#efb489"] ;
6 -> 10 ;
11 [label="squared_error = 0.0\nsamples = 1\nvalue = 78.0", fillcolor="#efb082"] ;
10 -> 11 ;
12 [label="% Unemployment <= 10.65\nsquared_error = 0.24\nsamples = 3\nvalue = 76.6", fillcolor="#f0b68d"] ;
10 -> 12 ;
13 [label="squared_error = 0.0\nsamples = 1\nvalue = 76.0", fillcolor="#f1b991"] ;
12 -> 13 ;
14 [label="squared_error = 0.0\nsamples = 2\nvalue = 77.0", fillcolor="#f0b48a"] ;
12 -> 14 ;
15 [label="% High School Graduate or lower <= 16.4\nsquared_error = 1.6\nsamples = 6\nvalue = 78.71", fillcolor="#eeac7d"] ;
5 -> 15 ;
16 [label="squared_error = 0.0\nsamples = 1\nvalue = 75.28", fillcolor="#f1bc96"] ;
15 -> 16 ;
17 [label="% Disability <= 4.85\nsquared_error = 0.47\nsamples = 5\nvalue = 79.05", fillcolor="#eeab7b"] ;
15 -> 17 ;
18 [label="% Unemployment <= 12.8\nsquared_error = 0.06\nsamples = 4\nvalue = 78.83", fillcolor="#eeac7c"] ;
17 -> 18 ;
19 [label="squared_error = 0.0\nsamples = 3\nvalue = 79.0", fillcolor="#eeab7b"] ;
18 -> 19 ;
20 [label="squared_error = 0.0\nsamples = 1\nvalue = 78.5", fillcolor="#eead7f"] ;
18 -> 20 ;
21 [label="squared_error = 0.0\nsamples = 1\nvalue = 81.0", fillcolor="#eca26c"] ;
17 -> 21 ;
22 [label="squared_error = 0.0\nsamples = 1\nvalue = 88.0", fillcolor="#e58139"] ;
2 -> 22 ;
23 [label="% High School Graduate or lower <= 25.85\nsquared_error = 6.64\nsamples = 3\nvalue = 74.4", fillcolor="#f2c09d"] ;
1 -> 23 ;
24 [label="% High School Graduate or lower <= 16.7\nsquared_error = 2.23\nsamples = 2\nvalue = 75.51", fillcolor="#f1bb95"] ;
23 -> 24 ;
25 [label="squared_error = 0.0\nsamples = 1\nvalue = 77.0", fillcolor="#f0b48a"] ;
24 -> 25 ;
26 [label="squared_error = -0.0\nsamples = 1\nvalue = 74.01", fillcolor="#f2c2a0"] ;
24 -> 26 ;
27 [label="squared_error = 0.0\nsamples = 1\nvalue = 70.0", fillcolor="#f6d5bd"] ;
23 -> 27 ;
28 [label="% Disability <= 2.0\nsquared_error = 27.96\nsamples = 22\nvalue = 72.68", fillcolor="#f4c8a9"] ;
0 -> 28 [labeldistance=2.5, labelangle=-45, headlabel="False"] ;
29 [label="% High School Graduate or lower <= 12.1\nsquared_error = 0.22\nsamples = 2\nvalue = 79.33", fillcolor="#eda979"] ;
28 -> 29 ;
30 [label="squared_error = 0.0\nsamples = 1\nvalue = 79.0", fillcolor="#eeab7b"] ;
29 -> 30 ;
31 [label="squared_error = 0.0\nsamples = 1\nvalue = 80.0", fillcolor="#eda674"] ;
29 -> 31 ;
32 [label="% Disability <= 3.65\nsquared_error = 25.79\nsamples = 20\nvalue = 72.0", fillcolor="#f4ccae"] ;
28 -> 32 ;
33 [label="% High School Graduate or lower <= 29.9\nsquared_error = 19.6\nsamples = 9\nvalue = 68.24", fillcolor="#f8ddca"] ;
32 -> 33 ;
34 [label="% Disability <= 2.45\nsquared_error = 10.23\nsamples = 7\nvalue = 69.93", fillcolor="#f6d5be"] ;
33 -> 34 ;
35 [label="% High School Graduate or lower <= 7.15\nsquared_error = 2.0\nsamples = 2\nvalue = 67.0", fillcolor="#f9e3d3"] ;
34 -> 35 ;
36 [label="squared_error = 0.0\nsamples = 1\nvalue = 65.0", fillcolor="#fbece2"] ;
35 -> 36 ;
37 [label="squared_error = 0.0\nsamples = 1\nvalue = 68.0", fillcolor="#f8decc"] ;
35 -> 37 ;
38 [label="% Disability <= 3.05\nsquared_error = 6.94\nsamples = 5\nvalue = 71.68", fillcolor="#f5cdb1"] ;
34 -> 38 ;
39 [label="% Disability <= 2.75\nsquared_error = 1.74\nsamples = 3\nvalue = 73.58", fillcolor="#f3c4a3"] ;
38 -> 39 ;
40 [label="% High School Graduate or lower <= 6.1\nsquared_error = 0.11\nsamples = 2\nvalue = 72.66", fillcolor="#f4c9a9"] ;
39 -> 40 ;
41 [label="squared_error = 0.0\nsamples = 1\nvalue = 72.33", fillcolor="#f4caac"] ;
40 -> 41 ;
42 [label="squared_error = 0.0\nsamples = 1\nvalue = 73.0", fillcolor="#f3c7a7"] ;
40 -> 42 ;
43 [label="squared_error = -0.0\nsamples = 1\nvalue = 75.4", fillcolor="#f1bc95"] ;
39 -> 43 ;
44 [label="% Unemployment <= 48.1\nsquared_error = 1.33\nsamples = 2\nvalue = 68.85", fillcolor="#f7dac5"] ;
38 -> 44 ;
45 [label="squared_error = 0.0\nsamples = 1\nvalue = 67.69", fillcolor="#f9e0ce"] ;
44 -> 45 ;
46 [label="squared_error = 0.0\nsamples = 1\nvalue = 70.0", fillcolor="#f6d5bd"] ;
44 -> 46 ;
47 [label="% High School Graduate or lower <= 35.6\nsquared_error = 0.25\nsamples = 2\nvalue = 61.5", fillcolor="#fffdfb"] ;
33 -> 47 ;
48 [label="squared_error = 0.0\nsamples = 1\nvalue = 61.0", fillcolor="#ffffff"] ;
47 -> 48 ;
49 [label="squared_error = 0.0\nsamples = 1\nvalue = 62.0", fillcolor="#fefaf8"] ;
47 -> 49 ;
50 [label="% High School Graduate or lower <= 22.65\nsquared_error = 17.71\nsamples = 11\nvalue = 73.97", fillcolor="#f3c2a0"] ;
32 -> 50 ;
51 [label="% Disability <= 4.35\nsquared_error = 22.39\nsamples = 3\nvalue = 70.28", fillcolor="#f6d4bb"] ;
50 -> 51 ;
52 [label="% Disability <= 3.75\nsquared_error = 2.53\nsamples = 2\nvalue = 74.25", fillcolor="#f2c19e"] ;
51 -> 52 ;
53 [label="squared_error = 0.0\nsamples = 1\nvalue = 77.0", fillcolor="#f0b48a"] ;
52 -> 53 ;
54 [label="squared_error = 0.0\nsamples = 1\nvalue = 73.33", fillcolor="#f3c5a5"] ;
52 -> 54 ;
55 [label="squared_error = 0.0\nsamples = 1\nvalue = 65.0", fillcolor="#fbece2"] ;
51 -> 55 ;
56 [label="% High School Graduate or lower <= 30.85\nsquared_error = 2.42\nsamples = 8\nvalue = 76.12", fillcolor="#f0b890"] ;
50 -> 56 ;
57 [label="% High School Graduate or lower <= 27.1\nsquared_error = 1.84\nsamples = 3\nvalue = 77.4", fillcolor="#efb287"] ;
56 -> 57 ;
58 [label="% Disability <= 4.5\nsquared_error = 0.22\nsamples = 2\nvalue = 76.33", fillcolor="#f0b78f"] ;
57 -> 58 ;
59 [label="squared_error = 0.0\nsamples = 1\nvalue = 76.0", fillcolor="#f1b991"] ;
58 -> 59 ;
60 [label="squared_error = 0.0\nsamples = 1\nvalue = 77.0", fillcolor="#f0b48a"] ;
58 -> 60 ;
61 [label="squared_error = 0.0\nsamples = 1\nvalue = 79.0", fillcolor="#eeab7b"] ;
57 -> 61 ;
62 [label="% Disability <= 9.95\nsquared_error = 0.85\nsamples = 5\nvalue = 75.21", fillcolor="#f1bd97"] ;
56 -> 62 ;
63 [label="% Disability <= 4.55\nsquared_error = 0.37\nsamples = 4\nvalue = 74.92", fillcolor="#f2be99"] ;
62 -> 63 ;
64 [label="squared_error = 0.0\nsamples = 1\nvalue = 76.0", fillcolor="#f1b991"] ;
63 -> 64 ;
65 [label="% Unemployment <= 19.6\nsquared_error = 0.16\nsamples = 3\nvalue = 74.7", fillcolor="#f2bf9b"] ;
63 -> 65 ;
66 [label="% Unemployment <= 16.45\nsquared_error = 0.06\nsamples = 2\nvalue = 74.25", fillcolor="#f2c19e"] ;
65 -> 66 ;
67 [label="squared_error = 0.0\nsamples = 1\nvalue = 74.5", fillcolor="#f2c09c"] ;
66 -> 67 ;
68 [label="squared_error = 0.0\nsamples = 1\nvalue = 74.0", fillcolor="#f2c2a0"] ;
66 -> 68 ;
69 [label="squared_error = 0.0\nsamples = 1\nvalue = 75.0", fillcolor="#f2be98"] ;
65 -> 69 ;
70 [label="squared_error = 0.0\nsamples = 1\nvalue = 77.0", fillcolor="#f0b48a"] ;
62 -> 70 ;
}